{
  "layers": [
    {
      "activation": 1,
      "biases": [
        -0.12215306358317872,
        -0.7910385711572293,
        -0.9535036610742751,
        -0.15285975398949164,
        -0.4492016645027079,
        0.5915503204819991,
        0.490924807329864,
        0.6656148716677204,
        -0.3325517499172652,
        -0.14591839105651497,
        -0.06177826445949959,
        0.6906235310790927,
        0.5300818345474291,
        0.20599167048775074,
        -0.2836308968007016,
        0.4948461655083039,
        0.8512335769317075,
        0.6685510145790585,
        0.5316833880203045,
        -0.23985313484752246
      ],
      "cols": 20,
      "rows": 2,
      "weights": [
        [
          -0.03864979137581267,
          0.07306794157508367,
          0.27903514739522567,
          2.1586016278719895,
          0.15725874857239722,
          0.3873257505669021,
          -0.2316362237054057,
          0.03352249299399285,
          2.7865585747417665,
          1.3096009220620781,
          2.0096878772908155,
          0.09323147684216973,
          -0.08869296941998762,
          -3.3176995311165522,
          0.23918718928619076,
          -0.26596783215332687,
          -0.12745768674608404,
          -0.23117888497135233,
          -0.12706704068018956,
          -0.033358205846316866
        ],
        [
          1.8029832764273164,
          2.960382146276614,
          0.058031412304857546,
          -2.198483677852451,
          1.5428004912666986,
          -0.33984352806916457,
          -1.7411292797553677,
          0.44036974785587635,
          -2.8202207180891588,
          -1.6424312313775815,
          -2.1847359434221056,
          -0.0529268871903525,
          -1.5992572970259504,
          2.2006592650254517,
          1.9981236014161226,
          -1.673155520890898,
          -0.4503695643878153,
          -2.3006552404480938,
          -1.9040645753475702,
          0.6117220949604762
        ]
      ]
    },
    {
      "activation": 1,
      "biases": [
        -0.008101255921756123,
        -0.007086064465280397,
        -0.24392405180781965,
        0.22883539641333145,
        0.4839934054539897,
        0.3937119145542667,
        -0.06798142945912694,
        0.004532014286378776,
        -0.5984204278023237,
        -0.122149878764704,
        0.08654421052193872,
        0.06189032855882308,
        -0.08399652823852206,
        0.7853650110668892,
        0.30919566491930245,
        0.021134823891091312,
        -0.05297829918930752,
        -0.05896834156681248,
        -0.08076148085542499,
        0.10416717673614886
      ],
      "cols": 20,
      "rows": 20,
      "weights": [
        [
          0.04696215552676693,
          -0.16330235198471346,
          -0.7350841885861679,
          -0.6765338566942284,
          0.49386435376622834,
          0.934108731777603,
          -1.1429624495221868,
          -0.014988283940178404,
          -0.45478407890001016,
          -1.1238359163143106,
          -0.5727857989216918,
          0.36534106064221133,
          -1.435026002211266,
          1.374247269953092,
          0.2422625198558753,
          -0.6264782915264806,
          -0.11421897591325776,
          1.2183750917008802,
          -0.28408617825488097,
          -0.23011713612055001
        ],
        [
          -1.5430901860914465,
          0.891124779076922,
          0.15858841089614617,
          -1.0961820235575643,
          1.4498857507383571,
          -0.0025710468355561516,
          0.09419613966127131,
          0.03295138743696324,
          -1.2944015978262495,
          -1.615214802926858,
          -1.1198324711918142,
          -0.06974505325035975,
          -0.343669229426747,
          1.254976839757113,
          -0.2695053022627107,
          0.40002795618560055,
          -0.15062178837422222,
          -0.2061404646630106,
          0.20745387222495926,
          0.0628130598998953
        ],
        [
          -0.41941217013589055,
          -0.9473308915082437,
          -0.10104925008786615,
          -0.09643480668468034,
          0.6593832283414854,
          -0.38466345317709005,
          0.41462396484426933,
          -0.251824005079759,
          -0.8626919826755124,
          -0.791414199020612,
          0.41717760688642747,
          0.538262608952108,
          -0.106750453938977,
          0.026550866354710555,
          -0.8054706035601402,
          0.36153606892436013,
          0.8125939653818064,
          1.2972331732317866,
          -0.43173903658789964,
          -0.31243065778690954
        ],
        [
          0.9792173958621433,
          -1.6908655645114057,
          -1.194153538199968,
          -1.775627109095396,
          -0.7304736518284753,
          0.47659233421575914,
          -0.3428253771630124,
          0.18946679232883468,
          1.0775625175654142,
          1.0848079289213504,
          0.2254274189596584,
          0.23445167519963261,
          -0.29335467424415745,
          -1.8075559600994267,
          -0.549206612343171,
          -0.8809128906667901,
          -0.17611754077045308,
          -0.3952744174626824,
          -0.8172885003255628,
          -0.9580850882909712
        ],
        [
          -1.1289045350035949,
          -0.048751168258612275,
          0.30834412912192793,
          -0.5218728710553426,
          1.1059091848443596,
          0.19445215261032017,
          0.13181406720758715,
          -0.3175375285896115,
          -1.1661451687296045,
          -0.76988653925994,
          -0.10063729978302864,
          0.018328036446413495,
          0.3460333671778442,
          0.38927487903285457,
          -0.6277957202165129,
          0.15185208841677608,
          0.3686725346511211,
          0.4006972280504927,
          -0.11698216722445326,
          0.05386615777218692
        ],
        [
          -0.28342834600363737,
          -0.21446730275070264,
          1.2035296008292367,
          0.4440502854884156,
          0.3706716716432645,
          -1.2649314054973622,
          1.1529487176605426,
          0.5395757200491761,
          -0.020532318182879872,
          0.6375307873809628,
          1.0371835910677731,
          -1.0580513656497432,
          1.1011965615115125,
          0.346435538659305,
          1.4035563991649034,
          1.2654733375149474,
          -0.43352684792891555,
          -1.1663149223212412,
          0.8266230932814453,
          -0.34237217308467494
        ],
        [
          0.9473255402182243,
          -0.03713151175570179,
          -0.16460799236784254,
          1.148034467323637,
          -0.5242798125123063,
          0.08395236649285522,
          -0.400158037471357,
          0.37667486264617367,
          0.5847444440151818,
          0.7999414349850642,
          0.5338341151635647,
          -0.14008176508714823,
          -0.18011912948585038,
          0.35518936452757827,
          0.9095137200953979,
          -0.3814080512665945,
          -0.1504809603758211,
          0.20238596656678617,
          -0.34666044721873585,
          0.21269580220287213
        ],
        [
          -0.2068234179272421,
          -0.0875299222966157,
          0.46538237903226537,
          0.42448975950677964,
          0.051142130319622434,
          -0.8122970519713394,
          0.4844101770855117,
          0.37998298717232415,
          -0.8579734017731636,
          0.26996944514510385,
          0.23280165123030921,
          -0.5894606249388918,
          0.9099708847714658,
          0.13577758854400948,
          0.5393835042272093,
          0.6205607057605816,
          -0.3492695095756374,
          -0.5987617564447552,
          0.6398679117338797,
          -0.4541264631770259
        ],
        [
          1.1084745164324377,
          -1.6682175053996942,
          -0.7079519785803183,
          -1.731473869822777,
          -0.8269071951639808,
          1.0841784919438766,
          -1.0551170186127352,
          0.21079505708790286,
          2.387857424701391,
          1.1105822895762816,
          0.47859349565474346,
          0.5109611511363614,
          -1.1552892594187987,
          -1.922881174569361,
          -0.49178123064871837,
          -1.1752008133693665,
          -0.4636621204949529,
          0.5417781853909993,
          -0.41908449096746503,
          -1.0630075767794434
        ],
        [
          0.6026625590859235,
          -1.3526966160331437,
          -0.7768446468664706,
          -0.7367406072966008,
          -0.12243086465609784,
          0.8378350710306461,
          -0.19881028002966217,
          0.7354643570276383,
          0.5798609594196664,
          0.5371794603506934,
          0.28552282049065886,
          0.8820942278179459,
          0.07408960971372906,
          -1.048461686137899,
          -0.9708607783621533,
          -0.8896873080635866,
          -0.3747917065509357,
          -0.7325617275222536,
          -0.31925320942352436,
          -0.6566065161560748
        ],
        [
          0.9666885699612242,
          -1.6821845894929088,
          -1.1494451411197708,
          -1.3599973971502908,
          -0.7387107994873529,
          0.3775818695448866,
          -0.34361384807967904,
          0.266230133139468,
          1.2706472977486534,
          0.7149080901999719,
          0.9557925575408519,
          0.5922275007587222,
          0.14604854725624597,
          -1.523744599171593,
          -0.3108348223470194,
          -1.1293356412581161,
          0.03568906768663226,
          -0.40738354425160084,
          -0.47200794772134236,
          -0.4872057968166834
        ],
        [
          -0.16795239627420253,
          0.16105233305574562,
          1.2571270997348434,
          0.6584822876302895,
          0.7106477917472767,
          -0.6921825311345212,
          0.6918695367933317,
          0.3359285311648139,
          -0.8227655387669777,
          0.024827903964158318,
          0.9795394320307143,
          -0.5046354415524043,
          1.0888695259905457,
          0.04040916323809073,
          0.7339750577240002,
          0.7459664437362692,
          -0.1591290508268192,
          -1.066266419349553,
          1.047752438239486,
          0.21304031418859834
        ],
        [
          1.0039960917502055,
          -0.2151201356938852,
          -0.3852438394416825,
          0.5383868736544779,
          -0.6687801357725318,
          0.39790017489367635,
          -0.272300444958907,
          0.12972162073210364,
          0.4663906612439299,
          0.7270365459255214,
          0.7966360367943499,
          -0.03325441803776912,
          -0.08619250949246361,
          0.20244869018043546,
          0.8955684354282714,
          -0.35638995795891015,
          -0.5468434916659909,
          -0.45966298686172374,
          -0.3710904010919454,
          0.27465384446693497
        ],
        [
          -1.468708156993079,
          2.1698131612504854,
          -0.8907950595171998,
          1.366244470997283,
          1.942581079111168,
          1.2365872320261972,
          -1.1305490815952655,
          -0.01473520320471183,
          -2.837280690783998,
          -0.8374968787517656,
          -1.1487229475552188,
          0.7858976716145182,
          0.8517150743222831,
          1.489461223232294,
          -1.2481765146230968,
          -0.23618480799877836,
          0.4462474187439687,
          -1.6085338988579088,
          -0.15183066139744536,
          1.2044588222619124
        ],
        [
          -0.8106016562651472,
          0.35151382731409625,
          -0.053831808287064006,
          -0.19210384374720704,
          1.200061289212641,
          -0.2194576552939855,
          -0.06325562721426553,
          -0.24555146015696339,
          -0.8250076296585068,
          -1.308282930328711,
          -0.6424413269382163,
          -0.23553108687065366,
          0.31622488312060254,
          0.7967153513702814,
          -0.40857711613271097,
          0.29264984423559814,
          -0.08208821438604649,
          0.07325406275087992,
          -0.01487930837933175,
          -0.13164162320750875
        ],
        [
          1.1992157063761668,
          0.294491133847904,
          -0.07733961160286716,
          1.0566976443432297,
          -0.15846292390331232,
          0.12975405548428487,
          -0.20945258887132226,
          0.8084488219203213,
          0.17119140859758622,
          0.9421974976228114,
          0.3573778982127728,
          0.22514736763566337,
          0.3052464940719316,
          -0.20743389951128247,
          0.504345900793477,
          -0.5092641457870742,
          -0.43095052213442536,
          -0.06093210388437391,
          -0.41083625594374484,
          -0.22374561090385797
        ],
        [
          0.4910313140263414,
          0.016442059001294165,
          -0.131231279160525,
          0.5291962954010132,
          -0.3043551420705164,
          0.7861494648987478,
          -0.6407846402750103,
          0.3348235008509872,
          -0.02238666957634559,
          0.7988103321542307,
          -0.0745385329758058,
          -0.3081769561717794,
          -0.5353300677431918,
          0.5229583539110956,
          0.7035430490915502,
          -0.5372898323726601,
          -0.7531537220875076,
          -1.019893362672865,
          0.281686263957437,
          0.1080747353815624
        ],
        [
          1.5511427712536618,
          -0.7606998125518921,
          -0.6024227200594607,
          0.917494788895778,
          -0.8547665551340451,
          0.22541232306165768,
          -0.1397468120474006,
          0.6229534567625424,
          0.15769563706011377,
          1.2058899982649087,
          0.5582764555150357,
          0.16038375749430428,
          -0.3454089273062023,
          -0.21109678337944007,
          0.8447843118096531,
          -0.40125253998975663,
          -0.5949899310945143,
          0.0940391303186485,
          -0.42937136011894333,
          0.245591558621932
        ],
        [
          1.3134246223110826,
          -0.3167577568795319,
          -0.09203212949711986,
          0.5765054438044798,
          -0.520299353704693,
          0.029762400992158263,
          0.16472227142553894,
          0.5462189913839048,
          0.41844842417563843,
          0.5821033553895899,
          0.8645571400968515,
          0.04718929608672066,
          -0.43381465373827516,
          -0.24502826056187063,
          1.1846541504783075,
          0.004163859379510495,
          -0.6224153084252907,
          -0.36331180200881846,
          -0.4325295185132928,
          0.11300005761581974
        ],
        [
          0.1707456544760401,
          -0.8748009304721891,
          -0.7133890149821672,
          -0.31480155450367686,
          0.33906374972329356,
          0.5835444547030415,
          -0.768139692704653,
          -0.5537116776719484,
          -0.22334818529927974,
          -0.8283591367888986,
          -0.2927511690233776,
          0.04783931618675161,
          -1.2684807581995186,
          0.9465894474522025,
          0.5234458065417714,
          -0.5596482529513352,
          0.21398038624941051,
          1.6541669586464518,
          -0.7987703723268482,
          -0.3746987488222928
        ]
      ]
    },
    {
      "activation": 1,
      "biases": [
        -0.04970208109622856,
        0.14386422065508167,
        -0.1219439483882008,
        0.649823816592459,
        -0.08257600740078902,
        0.16714831811186037,
        -0.2723652439107605,
        -0.014851932586984707,
        0.08265738983017641,
        -0.6472622617444337
      ],
      "cols": 10,
      "rows": 20,
      "weights": [
        [
          -0.003013378369547503,
          2.2459999051222828,
          0.5267887296209264,
          0.1421416160915073,
          -0.5895679371911018,
          0.7413726912350834,
          -1.490285083218592,
          1.055068292259997,
          1.3368026686803163,
          -2.3314561061505006
        ],
        [
          -0.71826737647223,
          -0.702645267606814,
          1.8305334860209352,
          -0.06714469847040896,
          -0.5691019517716699,
          -1.2200251981188968,
          2.5332423225169087,
          -0.7277690853188952,
          -0.9314883154821123,
          0.9896711342757124
        ],
        [
          1.0607148183404242,
          -0.7160766664049746,
          1.6562044591829013,
          -0.6689072822336077,
          0.3939284445769249,
          -1.9196830037511114,
          -0.1040349078457803,
          0.7534613625386649,
          1.1766322066234274,
          0.9969195556177883
        ],
        [
          -1.2380253813008093,
          0.34290037830709486,
          -0.05309093459131887,
          0.4754539122344683,
          0.8520758657406725,
          -2.4510518581683773,
          1.6158226292151598,
          1.354309196626397,
          1.7359350229141075,
          -0.2957219780396223
        ],
        [
          1.6082394763446333,
          -0.5267160120699458,
          -1.7772546628401829,
          1.1848165552143688,
          0.532323740929884,
          0.2107089383847197,
          -0.5564941409163345,
          -0.1263100202834825,
          0.3102727405006767,
          1.5725875412285453
        ],
        [
          -0.9854939599506101,
          0.8659216873016191,
          -1.2944631132116264,
          0.4402526927079607,
          -1.0668631415715577,
          1.5894982869219303,
          0.5689962687476204,
          -0.33962408079189843,
          -1.9102575596926286,
          -1.1641625766778683
        ],
        [
          0.6848570218295442,
          -0.46235194702843657,
          0.5390595403072559,
          0.3797048603581114,
          1.2734414814848938,
          -1.3921137900003842,
          -0.4136906233511129,
          0.5047973891930342,
          1.5466426993664375,
          0.46683527325137075
        ],
        [
          -0.5071712715397179,
          -0.6053208715839276,
          -0.9915785137462888,
          -0.6314916856341823,
          -0.057445107323637674,
          0.07115607828043923,
          0.06918457654341768,
          0.521781270579987,
          -0.34995334458168986,
          0.2422874388644511
        ],
        [
          -1.2069621891370539,
          0.2315875659822932,
          2.9457135588362022,
          -1.0827450991794865,
          -1.9427325394338615,
          0.767333817208016,
          1.6489642479771602,
          -0.6139828330076378,
          -1.4587714362777624,
          -1.311289868396456
        ],
        [
          -0.7392229154068077,
          0.7588685259739969,
          0.9787696552853209,
          -0.1863193604612216,
          0.315385988311923,
          1.0847791618159772,
          0.761111047064272,
          0.5752957218527477,
          1.5682889984364081,
          -3.0560915339623156
        ],
        [
          -0.03731672288452169,
          0.1737888268660522,
          -0.8618364422517849,
          -0.11103111183269362,
          1.1165997251205455,
          -0.5261442631304141,
          -1.0572787734496465,
          0.3770655333091378,
          1.2389725607604847,
          -1.2593481345804605
        ],
        [
          -0.12436931482417667,
          -0.048281904963384935,
          -0.9904980550286009,
          1.6734622397016758,
          -0.2957501042305945,
          1.2025019625598212,
          0.7381850392413355,
          -0.25839596335167936,
          -0.4285088489493725,
          -0.49048162588909106
        ],
        [
          0.10568742298180536,
          -1.6428968509075996,
          -0.44095224548922685,
          0.22955921208897292,
          1.721433835741308,
          -1.0094473135987692,
          1.0132253456502567,
          -0.16642072667923727,
          1.698808304281441,
          1.074472925584101
        ],
        [
          0.41707190966254376,
          0.39814825363396494,
          -0.8723746537582021,
          -0.03263290845808819,
          -0.5342469471543692,
          -1.165796031386145,
          -3.5149131898550507,
          1.3977023673637958,
          0.3260763328746918,
          1.271705270855564
        ],
        [
          -0.0015717808732408113,
          0.1401779034193746,
          -0.005300955907393408,
          -2.7824023018694173,
          -1.1426179484906842,
          -0.6722257519786123,
          -1.5502243646182539,
          1.3295184146124135,
          0.5017136373977225,
          -0.16713138901038846
        ],
        [
          0.1075639070973474,
          -0.36538958720883447,
          2.5699504756437146,
          -0.07223963157489227,
          0.47163984773499373,
          -1.0686335664410345,
          0.01818869179180558,
          0.6448116208589078,
          0.6839080051405004,
          1.065279475032814
        ],
        [
          0.007051982893587715,
          0.1645018781858511,
          0.8737622895797849,
          1.7056016592088656,
          0.04934653608021325,
          -0.17605623724409886,
          -0.4409369773719901,
          -0.6130885091552641,
          -0.14429037543392464,
          0.08619838854525855
        ],
        [
          0.8415572186151322,
          1.22824565780437,
          1.115040473705002,
          1.5064702541450834,
          -1.3748116424296033,
          1.506933540565238,
          -1.999422825274711,
          -0.2530349279180416,
          0.448472250109944,
          -1.9455676023905673
        ],
        [
          0.4932970236215849,
          -1.246811680574383,
          0.7747439324074561,
          -0.32192393948242876,
          0.25997052176452257,
          -1.1582970386776754,
          0.12005118505916237,
          -0.42261442268538785,
          0.5312854591709567,
          1.07790077960942
        ],
        [
          -0.6005092953666576,
          0.5520791692415271,
          -0.03891938992735948,
          0.4040976890478809,
          -0.45976367495085024,
          -1.1349128252742768,
          1.076852425166432,
          -0.08634311646871108,
          -0.39786505003292194,
          0.34995671415852936
        ]
      ]
    }
  ]
}
